tree
version=v3
num_class=1
num_tree_per_iteration=1
label_index=0
max_feature_idx=3
objective=binary sigmoid:1
feature_names=BMI Weight_(Kg) Cycle_length(days) Weight_gain(Y/N)
feature_infos=[12.417881749999999:38.899999999999999] [31:108] [2:12] [0:1]
tree_sizes=1047 1043 1052 1047 1054 1053 1053 1058 1045

Tree=0
num_leaves=9
num_cat=0
split_feature=3 0 2 0 0 1 0 2
split_gain=110.795 19.6192 16.9695 6.25208 4.25362 2.91391 2.67802 1.83766
threshold=1.0000000180025095e-35 17.938888890000005 4.5000000000000009 24.569482450000006 25.975778545000004 35.500000000000007 26.090091235000006 2.5000000000000004
decision_type=2 2 2 2 2 2 2 2
left_child=1 5 -2 -4 -5 -1 -6 -3
right_child=2 7 3 4 6 -7 -8 -9
leaf_value=-0.1214368497086866 0.46770625674291799 -0.040005462756231472 0.25889882644413942 -0.2073828476363663 0.21669760764068327 0.18550829069043948 -0.035088753722987837 -0.40196207296244657
leaf_weight=1.9998688697814921 29.498065829277039 2.24985247850418 11.249262392520906 5.2496557831764248 3.7497541308403006 6.7495574355125427 10.499311566352842 52.246574223041534
leaf_count=8 118 9 45 21 15 27 42 209
internal_value=-0.0161947 -0.318278 0.299927 0.0992907 -0.0258797 0.103753 0.0698205 -0.389862
internal_weight=0 63.2459 60.246 30.748 19.4987 8.74943 14.2491 54.4964
internal_count=494 253 241 123 78 35 57 218
is_linear=0
shrinkage=1


Tree=1
num_leaves=9
num_cat=0
split_feature=3 0 2 2 2 2 0 0
split_gain=56.9763 11.5615 9.81245 5.14193 4.25395 2.8133 2.37654 1.843
threshold=1.0000000180025095e-35 20.014420765000004 5.5000000000000009 6.5000000000000009 3.5000000000000004 4.5000000000000009 19.425649585000002 28.214193235000003
decision_type=2 2 2 2 2 2 2 2
left_child=1 4 5 -4 -1 -2 -6 -7
right_child=2 -3 3 -5 6 7 -8 -9
leaf_value=0.2266190845151535 0.36043518481310671 -0.29469771805251022 -0.22445680068977425 0.17182703375318531 -0.14611482585447122 0.18618936153345905 0.1027617685626503 -0.037883806765334101
leaf_weight=3.7082297503948203 27.943769752979279 45.469517230987549 5.2282805889844886 2.2304517328739166 9.0692539066076261 19.502955824136738 2.8820099830627433 3.4989229142665854
leaf_count=15 118 189 21 9 37 79 12 14
internal_value=0 -0.214991 0.235117 -0.0864089 0.0300746 0.285262 -0.0747574 0.151493
internal_weight=0 61.129 58.4044 7.45873 15.6595 50.9456 11.9513 23.0019
internal_count=494 253 241 30 64 211 49 93
is_linear=0
shrinkage=0.337433


Tree=2
num_leaves=9
num_cat=0
split_feature=3 2 2 1 0 0 0 1
split_gain=29.7753 7.47334 5.70989 5.54586 2.72831 3.3649 2.47329 2.32042
threshold=1.0000000180025095e-35 2.5000000000000004 4.5000000000000009 55.050000000000004 24.569482450000006 25.975778545000004 23.125509275000002 59.300000000000004
decision_type=2 2 2 2 2 2 2 2
left_child=1 -1 -2 6 7 -6 -3 -4
right_child=2 3 4 -5 5 -7 -8 -9
leaf_value=0.15820567920124343 0.28672973476112124 -0.12174396519329377 0.0083653402007606258 -0.31350712483640275 -0.17670538563865085 0.070924953752548953 0.090599058272139654 0.28379509691585586
leaf_weight=4.5992631167173377 24.968679338693619 27.554037734866146 6.2018052339553851 21.086349412798882 5.2042621225118664 14.039778277277945 4.4392314553260794 4.5237825065851212
leaf_count=19 118 119 26 95 21 57 20 19
internal_value=0 -0.155489 0.17907 -0.192506 0.0646143 -0.0160926 -0.0850195 0.172573
internal_weight=0 57.6789 54.9383 53.0796 29.9696 19.244 31.9933 10.7256
internal_count=494 253 241 234 123 78 139 45
is_linear=0
shrinkage=0.337433


Tree=3
num_leaves=9
num_cat=0
split_feature=3 0 2 2 2 0 0 0
split_gain=16.5971 6.03156 4.55466 3.62831 3.09929 2.80348 4.41663 1.23593
threshold=1.0000000180025095e-35 20.014420765000004 5.5000000000000009 6.5000000000000009 5.5000000000000009 26.376758305000003 28.820765905000005 31.233148370000006
decision_type=2 2 2 2 2 2 2 2
left_child=1 4 5 -4 -1 -2 -7 -8
right_child=2 -3 3 -5 -6 6 7 -9
leaf_value=0.12090890966401696 0.23546696440652931 -0.18063711286620612 -0.18924668733415487 0.14552770870196571 -0.15374094045780065 -0.10925833139082573 0.2385236298709128 -0.013698019081118375
leaf_weight=12.877156555652617 29.063669592142105 39.160937324166298 5.1312868297100058 2.1543992757797241 2.3790144175291053 7.6248675286769849 5.1554257869720459 2.3018079698085785
leaf_count=54 138 189 21 9 10 36 26 11
internal_value=0 -0.11583 0.141269 -0.0729392 0.0536513 0.179968 0.0444618 0.184126
internal_weight=0 54.4171 51.4315 7.28569 15.2562 44.1458 15.0821 7.45723
internal_count=494 253 241 30 64 211 73 37
is_linear=0
shrinkage=0.337433


Tree=4
num_leaves=9
num_cat=0
split_feature=2 1 1 2 0 1 2 0
split_gain=10.3615 4.77873 3.14693 2.68669 2.61823 4.00026 2.48053 2.77687
threshold=4.5000000000000009 78.500000000000014 41.000000000000007 6.5000000000000009 25.755504135000006 71.100000000000009 5.5000000000000009 22.816439675000002
decision_type=2 2 2 2 2 2 2 2
left_child=4 2 -2 6 -1 -6 7 -4
right_child=1 -3 3 -5 5 -7 -8 -9
leaf_value=0.21740542068203567 0.094546960854072756 0.18040393585483228 -0.17878631284964908 0.090936654913146633 -0.14874314238853567 0.15543149533600853 -0.25208044108924643 -0.0099117304555690986
leaf_weight=20.484733402729038 5.9875100255012503 4.2146514803171149 15.154431477189062 3.6559268385171881 5.0589345246553403 6.1072796136140823 12.324818655848501 27.040972143411636
leaf_count=110 25 20 72 18 28 34 59 128
internal_value=0 -0.065317 -0.0917919 -0.116169 0.156164 0.0145587 -0.135702 -0.0815084
internal_weight=0 68.3783 64.1637 58.1761 31.6509 11.1662 54.5202 42.1954
internal_count=494 322 302 277 172 62 259 200
is_linear=0
shrinkage=0.337433


Tree=5
num_leaves=9
num_cat=0
split_feature=3 1 2 1 1 1 0 0
split_gain=8.17558 4.206 2.28047 2.0139 2.13956 1.77762 1.62728 1.45939
threshold=1.0000000180025095e-35 55.050000000000004 4.5000000000000009 74.350000000000009 60.400000000000006 59.300000000000004 24.677416175000001 21.229229820000004
decision_type=2 2 2 2 2 2 2 2
left_child=1 -1 -2 4 5 7 -6 -4
right_child=2 -3 3 -5 6 -7 -8 -9
leaf_value=-0.0050562009539635803 0.18415404342127187 -0.19672894727063445 0.10445302034494412 0.18268870275572624 0.083267403273132312 0.17241216980276433 -0.14364156492098512 -0.10582459212906634
leaf_weight=32.171103864908218 18.638210207223892 17.886424005031586 1.9755459278821996 3.5716854333877555 1.6699213385581959 5.1771422028541565 10.203855276107786 5.5302353352308273
leaf_count=153 118 100 9 16 8 23 43 24
internal_value=0 -0.0837072 0.104333 0.0340073 -0.0116338 0.0735883 -0.0980423 -0.0325497
internal_weight=0 50.0575 46.7666 28.1284 24.5567 12.6829 11.8738 7.50578
internal_count=494 253 241 123 107 56 51 33
is_linear=0
shrinkage=0.337433


Tree=6
num_leaves=9
num_cat=0
split_feature=3 1 1 0 1 0 2 0
split_gain=5.16212 2.6247 1.67764 3.06402 1.55211 2.18991 1.42064 1.77551
threshold=1.0000000180025095e-35 55.050000000000004 78.500000000000014 26.782523150000006 60.400000000000006 24.569482450000006 2.5000000000000004 28.422496200000005
decision_type=2 2 2 2 2 2 2 2
left_child=1 -1 3 4 -2 -6 -3 -8
right_child=2 6 -4 -5 5 -7 7 -9
leaf_value=-0.0035566801198925533 0.15562269040948148 0.056908464285412949 0.21957712294619619 -0.07527084512871049 0.14928352295417532 -0.096978209475421753 -0.22756710202251174 0.02901284888629865
leaf_weight=32.127929612994194 18.249136939644817 1.212559506297114 5.2203712165355673 11.774023294448851 2.2495124042034131 6.7422852665185928 12.196713924407957 2.6701114177703849
leaf_count=153 103 5 31 59 14 34 79 16
internal_value=0 -0.0641409 0.0885556 0.0509352 0.108323 -0.00695631 -0.158858 -0.185301
internal_weight=0 48.2073 44.2353 39.015 27.2409 8.9918 16.0794 14.8668
internal_count=494 253 241 210 151 48 100 95
is_linear=0
shrinkage=0.337433


Tree=7
num_leaves=9
num_cat=0
split_feature=2 3 0 0 1 0 0 1
split_gain=4.0894 2.69781 1.66157 1.96791 1.57739 1.81449 1.43085 1.41607
threshold=2.5000000000000004 1.0000000180025095e-35 21.229229820000004 22.816439675000002 55.050000000000004 22.866439675000002 23.650000000000002 78.500000000000014
decision_type=2 2 2 2 2 2 2 2
left_child=-1 4 -3 -4 5 -2 -5 -8
right_child=1 2 3 6 -6 -7 7 -9
leaf_value=0.17786016360235926 -0.065837141487024617 0.17681202065202137 -0.15972974364290732 0.1551294750985257 -0.15427469559350068 0.099944540319995681 -0.035264165911446509 0.13504123163715467
leaf_weight=9.7424665912985784 22.829041093587879 4.3097414299845687 2.3806887641549102 4.8084521219134357 13.241390630602835 6.2201846688985816 22.881738871335987 2.6822942942380896
leaf_count=60 109 28 11 32 95 30 114 15
internal_value=0 -0.0189713 0.0448187 0.0089169 -0.0738586 -0.02201 0.0403363 -0.000493799
internal_weight=0 79.3535 37.0629 32.7532 42.2906 29.0492 30.3725 25.564
internal_count=494 434 200 172 234 139 161 129
is_linear=0
shrinkage=0.337433


Tree=8
num_leaves=9
num_cat=0
split_feature=1 2 2 0 0 0 0 1
split_gain=2.46404 2.5044 3.33629 2.7232 2.93488 3.27662 2.96059 2.86765
threshold=78.500000000000014 5.5000000000000009 6.5000000000000009 17.938888890000005 22.816439675000002 26.211111110000001 21.615574425000002 35.500000000000007
decision_type=2 2 2 2 2 2 2 2
left_child=1 3 -3 7 6 -6 -5 -1
right_child=-2 2 -4 4 5 -7 -8 -9
leaf_value=-0.091014085445133522 0.17268589163081 -0.19442252207076754 0.096813217525392611 -0.0037883365318207686 0.10772103061163983 -0.074800119513551505 -0.25529279187447046 0.23103145469621553
leaf_weight=1.6990881562232951 5.4112986251711837 10.580740906298159 3.339971810579299 13.038120307028295 25.695770800113678 14.09768486022949 4.8685899525880805 7.246328666806221
leaf_count=7 38 62 18 70 157 80 26 36
internal_value=0 -0.00688847 -0.118165 0.0221103 -0.00891756 0.0420617 -0.108415 0.16014
internal_weight=0 80.5663 13.9207 66.6456 57.7002 39.7935 17.9067 8.94542
internal_count=494 456 80 376 333 237 96 43
is_linear=0
shrinkage=0.337433


end of trees

feature_importances:
BMI=29
Cycle_length(days)=19
Weight_(Kg)=17
Weight_gain(Y/N)=7

parameters:
[boosting: gbdt]
[objective: binary]
[metric: binary_logloss]
[tree_learner: serial]
[device_type: cpu]
[data: ]
[valid: ]
[num_iterations: 9]
[learning_rate: 0.337433]
[num_leaves: 9]
[num_threads: -1]
[deterministic: 0]
[force_col_wise: 0]
[force_row_wise: 0]
[histogram_pool_size: -1]
[max_depth: -1]
[min_data_in_leaf: 8]
[min_sum_hessian_in_leaf: 0.001]
[bagging_fraction: 1]
[pos_bagging_fraction: 1]
[neg_bagging_fraction: 1]
[bagging_freq: 0]
[bagging_seed: 3]
[feature_fraction: 1]
[feature_fraction_bynode: 1]
[feature_fraction_seed: 2]
[extra_trees: 0]
[extra_seed: 6]
[early_stopping_round: 0]
[first_metric_only: 0]
[max_delta_step: 0]
[lambda_l1: 0.000976562]
[lambda_l2: 4.30566]
[linear_lambda: 0]
[min_gain_to_split: 0]
[drop_rate: 0.1]
[max_drop: 50]
[skip_drop: 0.5]
[xgboost_dart_mode: 0]
[uniform_drop: 0]
[drop_seed: 4]
[top_rate: 0.2]
[other_rate: 0.1]
[min_data_per_group: 100]
[max_cat_threshold: 32]
[cat_l2: 10]
[cat_smooth: 10]
[max_cat_to_onehot: 4]
[top_k: 20]
[monotone_constraints: ]
[monotone_constraints_method: basic]
[monotone_penalty: 0]
[feature_contri: ]
[forcedsplits_filename: ]
[refit_decay_rate: 0.9]
[cegb_tradeoff: 1]
[cegb_penalty_split: 0]
[cegb_penalty_feature_lazy: ]
[cegb_penalty_feature_coupled: ]
[path_smooth: 0]
[interaction_constraints: ]
[verbosity: -1]
[saved_feature_importance_type: 0]
[linear_tree: 0]
[max_bin: 1023]
[max_bin_by_feature: ]
[min_data_in_bin: 3]
[bin_construct_sample_cnt: 200000]
[data_random_seed: 1]
[is_enable_sparse: 1]
[enable_bundle: 1]
[use_missing: 1]
[zero_as_missing: 0]
[feature_pre_filter: 1]
[pre_partition: 0]
[two_round: 0]
[header: 0]
[label_column: ]
[weight_column: ]
[group_column: ]
[ignore_column: ]
[categorical_feature: ]
[forcedbins_filename: ]
[precise_float_parser: 0]
[objective_seed: 5]
[num_class: 1]
[is_unbalance: 0]
[scale_pos_weight: 1]
[sigmoid: 1]
[boost_from_average: 1]
[reg_sqrt: 0]
[alpha: 0.9]
[fair_c: 1]
[poisson_max_delta_step: 0.7]
[tweedie_variance_power: 1.5]
[lambdarank_truncation_level: 30]
[lambdarank_norm: 1]
[label_gain: ]
[eval_at: ]
[multi_error_top_k: 1]
[auc_mu_weights: ]
[num_machines: 1]
[local_listen_port: 12400]
[time_out: 120]
[machine_list_filename: ]
[machines: ]
[gpu_platform_id: -1]
[gpu_device_id: -1]
[gpu_use_dp: 0]
[num_gpu: 1]

end of parameters

pandas_categorical:[]